<?xml version="1.0"?>
<!--
    20x20 profile face detector.
    Contributed by David Bradley from Princeton University.

////////////////////////////////////////////////////////////////////////////////////////

  IMPORTANT: READ BEFORE DOWNLOADING, COPYING, INSTALLING OR USING.

  By downloading, copying, installing or using the software you agree to this license.
  If you do not agree to this license, do not download, install,
  copy or use the software.


                        Intel License Agreement
                For Open Source Computer Vision Library

 Copyright (C) 2000, Intel Corporation, all rights reserved.
 Third party copyrights are property of their respective owners.

 Redistribution and use in source and binary forms, with or without modification,
 are permitted provided that the following conditions are met:

   * Redistribution's of source code must retain the above copyright notice,
     this list of conditions and the following disclaimer.

   * Redistribution's in binary form must reproduce the above copyright notice,
     this list of conditions and the following disclaimer in the documentation
     and/or other materials provided with the distribution.

   * The name of Intel Corporation may not be used to endorse or promote products
     derived from this software without specific prior written permission.

 This software is provided by the copyright holders and contributors "as is" and
 any express or implied warranties, including, but not limited to, the implied
 warranties of merchantability and fitness for a particular purpose are disclaimed.
 In no event shall the Intel Corporation or contributors be liable for any direct,
 indirect, incidental, special, exemplary, or consequential damages
 (including, but not limited to, procurement of substitute goods or services;
 loss of use, data, or profits; or business interruption) however caused
 and on any theory of liability, whether in contract, strict liability,
 or tort (including negligence or otherwise) arising in any way out of
 the use of this software, even if advised of the possibility of such damage.

-->

<opencv_storage>
<haarcascade_profileface type_id="opencv-haar-classifier">
  <size>20 20</size>
  <stages>
    <_>
      <!-- stage 0 -->
      <trees>
        <_>
          <!-- tree 0 -->
          <_>
            <!-- root node -->
            <feature>
              <rects>
                <_>10   7   2   6 -1.</_>
                <_>10  10   2   3 2.</_></rects>
              <tilted>0</tilted></feature>
            <threshold>1.1384399840608239e-003</threshold>
            <left_val>-8.3771979808807373e-001</left_val>
            <right_val>7.3413830995559692e-001</right_val></_></_>
        <_>
          <!-- tree 1 -->
          <_>
            <!-- root node -->
            <feature>
              <rects>
                <_>2   3  10   7 -1.</_>
                <_>2  3  5  7 2.</_></rects>
              <tilted>0</tilted></feature>
            <threshold>-1.1342350393533700e-002</threshold>
            <left_val>6.2702018022537231e-001</left_val>
            <right_val>-7.2396302223205566e-001</right_val></_></_>
        <_>
          <!-- tree 2 -->
          <_>
            <!-- root node -->
            <feature>
              <rects>
                <_>7  11   3   6 -1.</_>
                <_>7  14   3   3 2.</_></rects>
              <tilted>0</tilted></feature>
            <threshold>-1.1023089755326509e-003</threshold>
            <left_val>3.7600189447402949e-001</left_val>
            <right_val>-6.6088408231735229e-001</right_val></_></_></trees>
      <stage_threshold>-1.1856809854507446</stage_threshold>
      <parent>-1</parent>
      <next>-1</next></_>
    <_>
      <!-- stage 1 -->
      <trees>
        <_>
          <!-- tree 0 -->
          <_>
            <!-- root node -->
            <feature>
              <rects>
                <_>2  4  8  8 -1.</_>
                <_>2  4  4  8 2.</_></rects>
              <tilted>0</tilted></feature>
            <threshold>-1.9553869962692299e-002</threshold>
            <left_val>4.9245831370353699e-001</left_val>
            <right_val>-6.3396167755126953e-001</right_val></_></_>
        <_>
          <!-- tree 1 -->
          <_>
            <!-- root node -->
            <feature>
              <rects>
                <_>10   7   5   4 -1.</_>
                <_>10   9   5   2 2.</_></rects>
              <tilted>0</tilted></feature>
            <threshold>2.2794529795646667e-003</threshold>
            <left_val>-6.4604967832565308e-001</left_val>
            <right_val>3.5818460583686829e-001</right_val></_></_>
        <_>
          <!-- tree 2 -->
          <_>
            <!-- root node -->
            <feature>
              <rects>
                <_>6  4  6  6 -1.</_>
                <_>9  4  3  3 2.</_>
                <_>6  7  3  3 2.</_></rects>
              <tilted>0</tilted></feature>
            <threshold>2.4270440917462111e-003</threshold>
            <left_val>-4.7253230214118958e-001</left_val>
            <right_val>2.8494310379028320e-001</right_val></_></_>
        <_>
          <!-- tree 3 -->
          <_>
            <!-- root node -->
            <feature>
              <rects>
                <_>5  14   5   2 -1.</_>
                <_>5  15   5   1 2.</_></rects>
              <tilted>0</tilted></feature>
            <threshold>1.9644061103463173e-003</threshold>
            <left_val>1.6999539732933039e-001</left_val>
            <right_val>-7.7868157625198364e-001</right_val></_></_>
        <_>
          <!-- tree 4 -->
          <_>
            <!-- root node -->
            <feature>
              <rects>
                <_>5  11   8   4 -1.</_>
                <_>5  13   8   2 2.</_></rects>
              <tilted>0</tilted></feature>
            <threshold>2.2895270958542824e-003</threshold>
            <left_val>1.5551710128784180e-001</left_val>
            <right_val>-6.6725099086761475e-001</right_val></_></_>
        <_>
          <!-- tree 5 -->
          <_>
            <!-- root node -->
            <feature>
              <rects>
                <_>6  14   3   3 -1.</_>
                <_>6  15   3   1 3.</_></rects>
              <tilted>0</tilted></feature>
            <threshold>-3.0143910553306341e-003</threshold>
            <left_val>-6.8721300363540649e-001</left_val>
            <right_val>1.4604569971561429e-001</right_val></_></_>
        <_>
          <!-- tree 6 -->
          <_>
            <!-- root node -->
            <feature>
              <rects>
                <_>14   5   3  11 -1.</_>
                <_>15   5   1  11 3.</_></rects>
              <tilted>0</tilted></feature>
            <threshold>-1.7399009317159701e-002</threshold>
            <left_val>7.2524380683898926e-001</left_val>
            <right_val>-1.6572900116443631e-001</right_val></_></_>
        <_>
          <!-- tree 7 -->
          <_>
            <!-- root node -->
            <feature>
              <rects>
                <_>3  7  9  6 -1.</_>
                <_>3  10   9   3 2.</_></rects>
              <tilted>0</tilted></feature>
            <threshold>9.0722442837432027e-004</threshold>
            <left_val>-4.6388080716133118e-001</left_val>
            <right_val>2.3604999482631681e-001</right_val></_></_>
        <_>
          <!-- tree 8 -->
          <_>
            <!-- root node -->
            <feature>
              <rects>
                <_>6  12   1   2 -1.</_>
                <_>6  13   1   1 2.</_></rects>
              <tilted>0</tilted></feature>
            <threshold>-1.5043979510664940e-003</threshold>
            <left_val>-7.5959628820419312e-001</left_val>
            <right_val>1.1436919867992400e-001</right_val></_></_>
        <_>
          <!-- tree 9 -->
          <_>
            <!-- root node -->
            <feature>
              <rects>
                <_>13   3   6  17 -1.</_>
                <_>13   3   3  17 2.</_></rects>
              <tilted>0</tilted></feature>
            <threshold>1.0804689675569530e-001</threshold>
            <left_val>-1.2865519523620611e-001</left_val>
            <right_val>7.9092341661453247e-001</right_val></_></_>
        <_>
          <!-- tree 10 -->
          <_>
            <!-- root node -->
            <feature>
              <rects>
                <_>8  12   1   3 -1.</_>
                <_>8  13   1   1 3.</_></rects>
              <tilted>0</tilted></feature>
            <threshold>-1.1923050042241812e-003</threshold>
            <left_val>-6.2403547763824463e-001</left_val>
            <right_val>1.4847490191459661e-001</right_val></_></_>
        <_>
          <!-- tree 11 -->
          <_>
            <!-- root node -->
            <feature>
              <rects>
                <_>13   9   6   9 -1.</_>
                <_>13   9   3   9 2.</_></rects>
              <tilted>0</tilted></feature>
            <threshold>-2.0571390166878700e-002</threshold>
            <left_val>4.0808489918708801e-001</left_val>
            <right_val>-2.1287000179290769e-001</right_val></_></_></trees>
      <stage_threshold>-1.4913179874420166e+000</stage_threshold>
      <parent>0</parent>
      <next>-1</next></_>
    <_>
      <!-- stage 2 -->
      <trees>
        <_>
          <!-- tree 0 -->
          <_>
            <!-- root node -->
            <feature>
              <rects>
                <_>2  5  8  6 -1.</_>
                <_>2  5  4  6 2.</_></rects>
              <tilted>0</tilted></feature>
            <threshold>-3.6899209022522000e-002</threshold>
            <left_val>5.3308618068695068e-001</left_val>
            <right_val>-4.0872651338577271e-001</right_val></_></_>
        <_>
          <!-- tree 1 -->
          <_>
            <!-- root node -->
            <feature>
              <rects>
                <_>4  8  9  6 -1.</_>
                <_>4  10   9   2 3.</_></rects>
              <tilted>0</tilted></feature>
            <threshold>2.4960909504443407e-003</threshold>
            <left_val>-6.9489312171936035e-001</left_val>
            <right_val>2.7125179767608643e-001</right_val></_></_>
        <_>
          <!-- tree 2 -->
          <_>
            <!-- root node -->
            <feature>
              <rects>
                <_>9  8  6  6 -1.</_>
                <_>12   8   3   3 2.</_>
                <_>9  11   3   3 2.</_></rects>
              <tilted>0</tilted></feature>
            <threshold>2.4068039783742279e-004</threshold>
            <left_val>-5.6208252906799316e-001</left_val>
            <right_val>2.1930350363254550e-001</right_val></_></_>
        <_>
          <!-- tree 3 -->
          <_>
            <!-- root node -->
            <feature>
              <rects>
                <_>14   0   4  18 -1.</_>
                <_>14   0   2  18 2.</_></rects>
              <tilted>0</tilted></feature>
            <threshold>-5.8021828532218898e-002</threshold>
            <left_val>6.9060617685317993e-001</left_val>
            <right_val>-1.5082140266895289e-001</right_val></_></_>
        <_>
          <!-- tree 4 -->
          <_>
            <!-- root node -->
            <feature>
              <rects>
                <_>7  12   3   4 -1.</_>
                <_>7  14   3   2 2.</_></rects>
              <tilted>0</tilted></feature>
            <threshold>1.1526979506015778e-003</threshold>
            <left_val>1.3925389945507050e-001</left_val>
            <right_val>-6.6311657428741455e-001</right_val></_></_>
        <_>
          <!-- tree 5 -->
          <_>
            <!-- root node -->
            <feature>
              <rects>
                <_>10   0   3   9 -1.</_>
                <_>10   3   3   3 3.</_></rects>
              <tilted>0</tilted></feature>
            <threshold>7.4388440698385239e-003</threshold>
            <left_val>-3.3333170413970947e-001</left_val>
            <right_val>3.1699380278587341e-001</right_val></_></_>
        <_>
          <!-- tree 6 -->
          <_>
            <!-- root node -->
            <feature>
              <rects>
                <_>8  13   1   3 -1.</_>
                <_>8  14   1   1 3.</_></rects>
              <tilted>0</tilted></feature>
            <threshold>-1.4158539706841111e-003</threshold>
            <left_val>-6.8007302284240723e-001</left_val>
            <right_val>1.3243320584297180e-001</right_val></_></_>
        <_>
          <!-- tree 7 -->
          <_>
            <!-- root node -->
            <feature>
              <rects>
                <_>11   8   5   2 -1.</_>
                <_>11   9   5   1 2.</_></rects>
              <tilted>0</tilted></feature>
            <threshold>8.8562711607664824e-004</threshold>
            <left_val>-3.8672161102294922e-001</left_val>
            <right_val>1.9732959568500519e-001</right_val></_></_>
        <_>
          <!-- tree 8 -->
          <_>
            <!-- root node -->
            <feature>
              <rects>
                <_>7  13   2   3 -1.</_>
                <_>7  14   2   1 3.</_></rects>
              <tilted>0</tilted></feature>
            <threshold>2.5714060757309198e-003</threshold>
            <left_val>1.2035659700632100e-001</left_val>
            <right_val>-7.3177069425582886e-001</right_val></_></_>
        <_>
          <!-- tree 9 -->
          <_>
            <!-- root node -->
            <feature>
              <rects>
                <_>7  12   1   3 -1.</_>
                <_>7  13   1   1 3.</_></rects>
              <tilted>0</tilted></feature>
            <threshold>1.8255549948662519e-003</threshold>
            <left_val>7.7979840338230105e-002</left_val>
            <right_val>-7.7196091413497925e-001</right_val></_></_>
        <_>
          <!-- tree 10 -->
          <_>
            <!-- root node -->
            <feature>
              <rects>
                <_>9  12   2   8 -1.</_>
                <_>9  16   2   4 2.</_></rects>
              <tilted>0</tilted></feature>
            <threshold>-1.1993020307272673e-003</threshold>
            <left_val>1.6821229457855230e-001</left_val>
            <right_val>-4.1479128599166870e-001</right_val></_></_>
        <_>
          <!-- tree 11 -->
          <_>
            <!-- root node -->
            <feature>
              <rects>
                <_>10   3   4  13 -1.</_>
                <_>10   3   2  13 2.</_></rects>
              <tilted>0</tilted></feature>
            <threshold>2.3179080337285999e-002</threshold>
            <left_val>7.5337320566177396e-002</left_val>
            <right_val>-7.1047067642211914e-001</right_val></_></_>
        <_>
          <!-- tree 12 -->
          <_>
            <!-- root node -->
            <feature>
              <rects>
                <_>14   6   4  12 -1.</_>
                <_>14   6   2  12 2.</_></rects>
              <tilted>0</tilted></feature>
            <threshold>4.6539418399334002e-002</threshold>
            <left_val>-1.0464839637279510e-001</left_val>
            <right_val>6.6270697116851807e-001</right_val></_></_>
        <_>
          <!-- tree 13 -->
          <_>
            <!-- root node -->
            <feature>
              <rects>
                <_>6  13   3   2 -1.</_>
                <_>7  13   1   2 3.</_></rects>
              <tilted>0</tilted></feature>
            <threshold>-1.7157640540972352e-003</threshold>
            <left_val>-4.9618211388587952e-001</left_val>
            <right_val>1.6275240480899811e-001</right_val></_></_>
        <_>
          <!-- tree 14 -->
          <_>
            <!-- root node -->
            <feature>
              <rects>
                <_>14   5   3  11 -1.</_>
                <_>15   5   1  11 3.</_></rects>
              <tilted>0</tilted></feature>
            <threshold>-1.2778829783201200e-002</threshold>
            <left_val>4.6254539489746088e-001</left_val>
            <right_val>-1.6027900576591489e-001</right_val></_></_>
        <_>
          <!-- tree 15 -->
          <_>
            <!-- root node -->
            <feature>
              <rects>
                <_>4   6  13  12 -1.</_>
                <_>4  12  13   6 2.</_></rects>
              <tilted>0</tilted></feature>
            <threshold>-1.5214820206165311e-001</threshold>
            <left_val>-7.0592701435089111e-001</left_val>
            <right_val>1.0022509843111040e-001</right_val></_></_>
        <_>
          <!-- tree 16 -->
          <_>
            <!-- root node -->
            <feature>
              <rects>
                <_>7  7  6  6 -1.</_>
                <_>10   7   3   3 2.</_>
                <_>7  10   3   3 2.</_></rects>
              <tilted>0</tilted></feature>
            <threshold>3.1789899803698063e-003</threshold>
            <left_val>1.2345749884843830e-001</left_val>
            <right_val>-3.9093419909477228e-001</right_val></_></_>
        <_>
          <!-- tree 17 -->
          <_>
            <!-- root node -->
            <feature>
              <rects>
                <_>13   7   3   2 -1.</_>
                <_>14   7   1   2 3.</_></rects>
              <tilted>0</tilted></feature>
            <threshold>-2.2882770281285048e-003</threshold>
            <left_val>3.7081500887870789e-001</left_val>
            <right_val>-1.6210420429706571e-001</right_val></_></_>
        <_>
          <!-- tree 18 -->
          <_>
            <!-- root node -->
            <feature>
              <rects>
                <_>1   4  14   3 -1.</_>
                <_>1  4  7  3 2.</_></rects>
              <tilted>0</tilted></feature>
            <threshold>-2.9806189704686403e-003</threshold>
            <left_val>1.8087059259414670e-001</left_val>
            <right_val>-3.3239859342575068e-001</right_val></_></_>
        <_>
          <!-- tree 19 -->
          <_>
            <!-- root node -->
            <feature>
              <rects>
                <_>7  12   3   2 -1.</_>
                <_>8  12   1   2 3.</_></rects>
              <tilted>0</tilted></feature>
            <threshold>-1.5072739915922284e-003</threshold>
            <left_val>-4.9472311139106750e-001</left_val>
            <right_val>9.8288856446742998e-002</right_val></_></_>
        <_>
          <!-- tree 20 -->
          <_>
            <!-- root node -->
            <feature>
              <rects>
                <_>13  10   2   3 -1.</_>
                <_>13  11   2   1 3.</_></rects>
              <tilted>0</tilted></feature>
            <threshold>1.9225040450692177e-003</threshold>
            <left_val>-1.7791110277175901e-001</left_val>
            <right_val>3.0773329734802252e-001</right_val></_></_>
        <_>
          <!-- tree 21 -->
          <_>
            <!-- root node -->
            <feature>
              <rects>
                <_>7  14   1   3 -1.</_>
                <_>7  15   1   1 3.</_></rects>
              <tilted>0</tilted></feature>
            <threshold>1.9025449873879552e-003</threshold>
            <left_val>8.4794998168945299e-002</left_val>
            <right_val>-5.9020972251892090e-001</right_val></_></_>
        <_>
          <!-- tree 22 -->
          <_>
            <!-- root node -->
            <feature>
              <rects>
                <_>14   6   3   3 -1.</_>
                <_>15   6   1   3 3.</_></rects>
              <tilted>0</tilted></feature>
            <threshold>-3.5421559587121010e-003</threshold>
            <left_val>3.1175771355628967e-001</left_val>
            <right_val>-1.4392930269241330e-001</right_val></_></_>
        <_>
          <!-- tree 23 -->
          <_>
            <!-- root node -->
            <feature>
              <rects>
                <_>9  4  3  2 -1.</_>
                <_>10   4   1   2 3.</_></rects>
              <tilted>0</tilted></feature>
            <threshold>-2.9751660767942667e-003</threshold>
            <left_val>-6.3649141788482666e-001</left_val>
            <right_val>8.2639887928962694e-002</right_val></_></_>
        <_>
          <!-- tree 24 -->
          <_>
            <!-- root node -->
            <feature>
              <rects>
                <_>14   3   3  13 -1.</_>
                <_>15   3   1  13 3.</_></rects>
              <tilted>0</tilted></feature>
            <threshold>1.0003290139138700e-002</threshold>
            <left_val>-1.1699260026216510e-001</left_val>
            <right_val>4.2387530207633972e-001</right_val></_></_>
        <_>
          <!-- tree 25 -->
          <_>
            <!-- root node -->
            <feature>
              <rects>
                <_>3  4  2  3 -1.</_>
                <_>3  5  2  1 3.</_></rects>
              <tilted>0</tilted></feature>
            <threshold>-1.9193530315533280e-003</threshold>
            <left_val>-4.7115838527679438e-001</left_val>
            <right_val>1.1038240045309070e-001</right_val></_></_>
        <_>
          <!-- tree 26 -->
          <_>
            <!-- root node -->
            <feature>
              <rects>
                <_>4  8  4  4 -1.</_>
                <_>4  10   4   2 2.</_></rects>
              <tilted>0</tilted></feature>
            <threshold>2.5070620700717000e-002</threshold>
            <left_val>4.8775929957628299e-002</left_val>
            <right_val>-8.0351328849792480e-001</right_val></_></_></trees>
      <stage_threshold>-1.9596290588378906e+000</stage_threshold>
      <parent>1</parent>
      <next>-1</next></_>
    <_>
      <!-- stage 3 -->
      <trees>
        <_>
          <!-- tree 0 -->
          <_>
            <!-- root node -->
            <feature>
              <rects>
                <_>4  7  8  9 -1.</_>
                <_>4  10   8   3 3.</_></rects>
              <tilted>0</tilted></feature>
            <threshold>1.4214799739420400e-002</threshold>
            <left_val>-6.3577878475189209e-001</left_val>
            <right_val>3.3461728692054749e-001</right_val></_></_>
        <_>
          <!-- tree 1 -->
          <_>
            <!-- root node -->
            <feature>
              <rects>
                <_>0   0  12   6 -1.</_>
                <_>6  0  6  3 2.</_>
                <_>0  3  6  3 2.</_></rects>
              <tilted>0</tilted></feature>
            <threshold>-1.2525909580290300e-002</threshold>
            <left_val>3.2766130566596990e-001</left_val>
            <right_val>-4.1331529617309570e-001</right_val></_></_>
        <_>
          <!-- tree 2 -->
          <_>
            <!-- root node -->
            <feature>
              <rects>
                <_>12   9   3   6 -1.</_>
                <_>12  12   3   3 2.</_></rects>
              <tilted>0</tilted></feature>
            <threshold>-2.2514370357384905e-005</threshold>
            <left_val>2.3102630674839020e-001</left_val>
            <right_val>-5.4282051324844360e-001</right_val></_></_>
        <_>
          <!-- tree 3 -->
          <_>
            <!-- root node -->
            <feature>
              <rects>
                <_>7  12   2   4 -1.</_>
                <_>7  12   1   4 2.</_></rects>
              <tilted>0</tilted></feature>
            <threshold>1.8600060138851404e-003</threshold>
            <left_val>1.7933349311351779e-001</left_val>
            <right_val>-6.9131940603256226e-001</right_val></_></_>
        <_>
          <!-- tree 4 -->
          <_>
            <!-- root node -->
            <feature>
              <rects>
                <_>7  11   3   8 -1.</_>
                <_>8  11   1   8 3.</_></rects>
              <tilted>0</tilted></feature>
            <threshold>7.8344792127609253e-003</threshold>
            <left_val>9.1071300208568601e-002</left_val>
            <right_val>-7.8126847743988037e-001</right_val></_></_>
        <_>
          <!-- tree 5 -->
          <_>
            <!-- root node -->
            <feature>
              <rects>
                <_>10   5   5   6 -1.</_>
                <_>10   7   5   2 3.</_></rects>
              <tilted>0</tilted></feature>
            <threshold>-4.2322301305830479e-003</threshold>
            <left_val>2.0658409595489499e-001</left_val>
            <right_val>-4.2906031012535101e-001</right_val></_></_>
        <_>
          <!-- tree 6 -->
          <_>
            <!-- root node -->
            <feature>
              <rects>
                <_>8  13   2   6 -1.</_>
                <_>8  16   2   3 2.</_></rects>
              <tilted>0</tilted></feature>
            <threshold>-7.5860600918531418e-004</threshold>
            <left_val>2.0730710029602051e-001</left_val>
            <right_val>-4.2070311307907099e-001</right_val></_></_>
        <_>
          <!-- tree 7 -->
          <_>
            <!-- root node -->
            <feature>
              <rects>
                <_>7  15   3   4 -1.</_>
                <_>8  15   1   4 3.</_></rects>
              <tilted>0</tilted></feature>
            <threshold>-3.5626380704343319e-003</threshold>
            <left_val>-6.3227087259292603e-001</left_val>
            <right_val>1.3118620216846469e-001</right_val></_></_>
        <_>
          <!-- tree 8 -->
          <_>
            <!-- root node -->
            <feature>
              <rects>
                <_>10   3   3   3 -1.</_>
                <_>11   3   1   3 3.</_></rects>
              <tilted>0</tilted></feature>
            <threshold>-4.9960161559283733e-003</threshold>
            <left_val>-7.5112378597259521e-001</left_val>
            <right_val>7.8203327953815502e-002</right_val></_></_>
        <_>
          <!-- tree 9 -->
          <_>
            <!-- root node -->
            <feature>
              <rects>
                <_>9  8  6  2 -1.</_>
                <_>9  8  3  2 2.</_></rects>
              <tilted>0</tilted></feature>
            <threshold>7.3098740540444851e-003</threshold>
            <left_val>9.3428641557693495e-002</left_val>
            <right_val>-6.6310107707977295e-001</right_val></_></_>
        <_>
          <!-- tree 10 -->
          <_>
            <!-- root node -->
            <feature>
              <rects>
                <_>8  7  4  2 -1.</_>
                <_>8  7  2  2 2.</_></rects>
              <tilted>0</tilted></feature>
            <threshold>2.2772040392737836e-004</threshold>
            <left_val>-3.4148821234703058e-001</left_val>
            <right_val>2.0008200407028201e-001</right_val></_></_>
        <_>
          <!-- tree 11 -->
          <_>
            <!-- root node -->
            <feature>
              <rects>
                <_>13   6   2   3 -1.</_>
                <_>13   6   1   3 2.</_></rects>
              <tilted>0</tilted></feature>
            <threshold>8.3124160300940275e-004</threshold>
            <left_val>-2.5448161363601690e-001</left_val>
            <right_val>2.5857710838317871e-001</right_val></_></_>
        <_>
          <!-- tree 12 -->
          <_>
            <!-- root node -->
            <feature>
              <rects>
                <_>9  0  3  8 -1.</_>
                <_>10   0   1   8 3.</_></rects>
              <tilted>0</tilted></feature>
            <threshold>-7.5492179021239281e-003</threshold>
            <left_val>-6.6138988733291626e-001</left_val>
            <right_val>8.3004422485828400e-002</right_val></_></_>
        <_>
          <!-- tree 13 -->
          <_>
            <!-- root node -->
            <feature>
              <rects>
                <_>12  10   3   8 -1.</_>
                <_>12  14   3   4 2.</_></rects>
              <tilted>0</tilted></feature>
            <threshold>-3.8039948791265502e-002</threshold>
            <left_val>-8.2163572311401367e-001</left_val>
            <right_val>5.9231590479612399e-002</right_val></_></_>
        <_>
          <!-- tree 14 -->
          <_>
            <!-- root node -->
            <feature>
              <rects>
                <_>5  3  3  2 -1.</_>
                <_>6  3  1  2 3.</_></rects>
              <tilted>0</tilted></feature>
            <threshold>2.8484580107033253e-003</threshold>
            <left_val>8.9729957282543196e-002</left_val>
            <right_val>-5.8333742618560791e-001</right_val></_></_>
        <_>
          <!-- tree 15 -->
          <_>
            <!-- root node -->
            <feature>
              <rects>
                <_>9  2  3  4 -1.</_>
                <_>10   2   1   4 3.</_></rects>
              <tilted>0</tilted></feature>
            <threshold>4.8181698657572269e-003</threshold>
            <left_val>9.3960560858249706e-002</left_val>
            <right_val>-5.7619768381118774e-001</right_val></_></_>
        <_>
          <!-- tree 16 -->
          <_>
            <!-- root node -->
            <feature>
              <rects>
                <_>5  10   1   8 -1.</_>
                <_>5  14   1   4 2.</_></rects>
              <tilted>0</tilted></feature>
            <threshold>-1.1190489865839500e-002</threshold>
            <left_val>-6.2544298171997070e-001</left_val>
            <right_val>7.3608897626399994e-002</right_val></_></_>
        <_>
          <!-- tree 17 -->
          <_>
            <!-- root node -->
            <feature>
              <rects>
                <_>12  12   2   3 -1.</_>
                <_>12  13   2   1 3.</_></rects>
              <tilted>0</tilted></feature>
            <threshold>-6.4537129364907742e-003</threshold>
            <left_val>5.5123388767242432e-001</left_val>
            <right_val>-1.0020790249109270e-001</right_val></_></_>
        <_>
          <!-- tree 18 -->
          <_>
            <!-- root node -->
            <feature>
              <rects>
                <_>12  12   2   3 -1.</_>
                <_>12  13   2   1 3.</_></rects>
              <tilted>0</tilted></feature>
            <threshold>3.3225629013031721e-003</threshold>
            <left_val>-1.0797890275716780e-001</left_val>
            <right_val>5.3664940595626831e-001</right_val></_></_>
        <_>
          <!-- tree 19 -->
          <_>
            <!-- root node -->
            <feature>
              <rects>
                <_>8  12   3   2 -1.</_>
                <_>9  12   1   2 3.</_></rects>
              <tilted>0</tilted></feature>
            <threshold>4.6705761924386024e-003</threshold>
            <left_val>8.8321126997470897e-002</left_val>
            <right_val>-6.7683601379394531e-001</right_val></_></_>
        <_>
          <!-- tree 20 -->
          <_>
            <!-- root node -->
            <feature>
              <rects>
                <_>7   2   1  12 -1.</_>
                <_>7  6  1  4 3.</_></rects>
              <tilted>0</tilted></feature>
            <threshold>-1.1613310314714900e-002</threshold>
            <left_val>-5.0711882114410400e-001</left_val>
            <right_val>7.6556630432605702e-002</right_val></_></_>
        <_>
          <!-- tree 21 -->
          <_>
            <!-- root node -->
            <feature>
              <rects>
                <_>4   8  14   6 -1.</_>
                <_>11   8   7   3 2.</_>
                <_>4  11   7   3 2.</_></rects>
              <tilted>0</tilted></feature>
            <threshold>-3.7515610456466703e-002</threshold>
            <left_val>-7.2936272621154785e-001</left_val>
            <right_val>5.9448610991239499e-002</right_val></_></_>
        <_>
          <!-- tree 22 -->
          <_>
            <!-- root node -->
            <feature>
              <rects>
                <_>6   3   3  17 -1.</_>
                <_>7   3   1  17 3.</_></rects>
              <tilted>0</tilted></feature>
            <threshold>2.3086030036211000e-002</threshold>
            <left_val>5.0718959420919398e-002</left_val>
            <right_val>-7.8459781408309937e-001</right_val></_></_>
        <_>
          <!-- tree 23 -->
          <_>
            <!-- root node -->
            <feature>
              <rects>
                <_>7  12   1   2 -1.</_>
                <_>7  13   1   1 2.</_></rects>
              <tilted>0</tilted></feature>
            <threshold>-7.1651988946541678e-006</threshold>
            <left_val>1.6686220467090609e-001</left_val>
            <right_val>-2.5713220238685608e-001</right_val></_></_>
        <_>
          <!-- tree 24 -->
          <_>
            <!-- root node -->
            <feature>
              <rects>
                <_>5  1  2  1 -1.</_>
                <_>5  1  1  1 2.</_></rects>
              <tilted>0</tilted></feature>
            <threshold>7.1611627936363220e-004</threshold>
            <left_val>1.0636030137538910e-001</left_val>
            <right_val>-4.2793640494346619e-001</right_val></_></_>
        <_>
          <!-- tree 25 -->
          <_>
            <!-- root node -->
            <feature>
              <rects>
                <_>13  10   2   3 -1.</_>
                <_>13  11   2   1 3.</_></rects>
              <tilted>0</tilted></feature>
            <threshold>4.1476460173726082e-003</threshold>
            <left_val>-1.2069659680128100e-001</left_val>
            <right_val>4.1993188858032232e-001</right_val></_></_>
        <_>
          <!-- tree 26 -->
          <_>
            <!-- root node -->
            <feature>
              <rects>
                <_>14  10   1   3 -1.</_>
                <_>14  11   1   1 3.</_></rects>
              <tilted>0</tilted></feature>
            <threshold>-2.5815099943429232e-003</threshold>
            <left_val>4.8718088865280151e-001</left_val>
            <right_val>-1.0045810043811799e-001</right_val></_></_>
        <_>
          <!-- tree 27 -->
          <_>
            <!-- root node -->
            <feature>
              <rects>
                <_>6  12   2   3 -1.</_>
                <_>6  13   2   1 3.</_></rects>
              <tilted>0</tilted></feature>
            <threshold>-1.7147070029750466e-003</threshold>
            <left_val>-4.6096310019493097e-001</left_val>
            <right_val>1.0375110059976581e-001</right_val></_></_></trees>
      <stage_threshold>-1.9849590063095093e+000</stage_threshold>
      <parent>2</parent>
      <next>-1</next></_>
    <_>
      <!-- stage 4 -->
      <trees>
        <_>
          <!-- tree 0 -->
          <_>
            <!-- root node -->
            <feature>
              <rects>
                <_>2   2  10  10 -1.</_>
                <_>2   2   5  10 2.</_></rects>
              <tilted>0</tilted></feature>
            <threshold>-6.1202719807624803e-002</threshold>
            <left_val>3.9079108834266663e-001</left_val>
            <right_val>-3.9401251077651978e-001</right_val></_></_>
        <_>
          <!-- tree 1 -->
          <_>
            <!-- root node -->
            <feature>
              <rects>
                <_>6  13   3   1 -1.</_>
                <_>7  13   1   1 3.</_></rects>
              <tilted>0</tilted></feature>
            <threshold>-1.4643670292571187e-003</threshold>
            <left_val>-7.3697841167449951e-001</left_val>
            <right_val>1.5660220384597781e-001</right_val></_></_>
        <_>
          <!-- tree 2 -->
          <_>
            <!-- root node -->
            <feature>
              <rects>
                <_>7  10   1   4 -1.</_>
                <_>7  12   1   2 2.</_></rects>
              <tilted>0</tilted></feature>
            <threshold>7.2080420795828104e-004</threshold>
            <left_val>2.1675530076026919e-001</left_val>
            <right_val>-5.8012658357620239e-001</right_val></_></_>
        <_>
          <!-- tree 3 -->
          <_>
            <!-- root node -->
            <feature>
              <rects>
                <_>10   7   2   6 -1.</_>
                <_>10  10   2   3 2.</_></rects>
              <tilted>0</tilted></feature>
            <threshold>6.4895692048594356e-004</threshold>
            <left_val>-7.2308099269866943e-001</left_val>
            <right_val>1.2785249948501590e-001</right_val></_></_>
        <_>
          <!-- tree 4 -->
          <_>
            <!-- root node -->
            <feature>
              <rects>
                <_>7  11   1   3 -1.</_>
                <_>7  12   1   1 3.</_></rects>
              <tilted>0</tilted></feature>
            <threshold>-1.7158190021291375e-003</threshold>
            <left_val>-7.7100431919097900e-001</left_val>
            <right_val>1.0210309922695160e-001</right_val></_></_>
        <_>
          <!-- tree 5 -->
          <_>
            <!-- root node -->
            <feature>
              <rects>
                <_>8  12   3   3 -1.</_>
                <_>9  12   1   3 3.</_></rects>
              <tilted>0</tilted></feature>
            <threshold>-2.2490581031888723e-003</threshold>
            <left_val>-6.0623127222061157e-001</left_val>
            <right_val>1.2427269667387010e-001</right_val></_></_>
        <_>
          <!-- tree 6 -->
          <_>
            <!-- root node -->
            <feature>
              <rects>
                <_>6  0  8  6 -1.</_>
                <_>6  3  8  3 2.</_></rects>
              <tilted>0</tilted></feature>
            <threshold>5.3841978311538703e-002</threshold>
            <left_val>-1.7169749736785889e-001</left_val>
            <right_val>5.3350567817687988e-001</right_val></_></_>
        <_>
          <!-- tree 7 -->
          <_>
            <!-- root node -->
            <feature>
              <rects>
                <_>12   0   8  19 -1.</_>
                <_>12   0   4  19 2.</_></rects>
              <tilted>0</tilted></feature>
            <threshold>-1.3288970291614530e-001</threshold>
            <left_val>5.5924367904663086e-001</left_val>
            <right_val>-1.8954899907112119e-001</right_val></_></_>
        <_>
          <!-- tree 8 -->
          <_>
            <!-- root node -->
            <feature>
              <rects>
                <_>11   6   4   9 -1.</_>
                <_>11   9   4   3 3.</_></rects>
              <tilted>0</tilted></feature>
            <threshold>9.0965389972552657e-004</threshold>
            <left_val>-4.7166430950164800e-001</left_val>
            <right_val>1.6924260556697851e-001</right_val></_></_>
        <_>
          <!-- tree 9 -->
          <_>
            <!-- root node -->
            <feature>
              <rects>
                <_>6  14   1   2 -1.</_>
                <_>6  15   1   1 2.</_></rects>
              <tilted>0</tilted></feature>
            <threshold>6.0799147468060255e-004</threshold>
            <left_val>1.1347220093011860e-001</left_val>
            <right_val>-5.9846878051757813e-001</right_val></_></_>
        <_>
          <!-- tree 10 -->
          <_>
            <!-- root node -->
            <feature>
              <rects>
                <_>11   3   8  15 -1.</_>
                <_>11   3   4  15 2.</_></rects>
              <tilted>0</tilted></feature>
            <threshold>1.6072629392147059e-001</threshold>
            <left_val>-1.0295519977808000e-001</left_val>
            <right_val>6.6487199068069458e-001</right_val></_></_>
        <_>
          <!-- tree 11 -->
          <_>
            <!-- root node -->
            <feature>
              <rects>
                <_>5  14   2   3 -1.</_>
                <_>5  15   2   1 3.</_></rects>
              <tilted>0</tilted></feature>
            <threshold>-1.7097239615395665e-003</threshold>
            <left_val>-4.7276279330253601e-001</left_val>
            <right_val>1.3392050564289090e-001</right_val></_></_>
        <_>
          <!-- tree 12 -->
          <_>
            <!-- root node -->
            <feature>
              <rects>
                <_>12   7   3   2 -1.</_>
                <_>13   7   1   2 3.</_></rects>
              <tilted>0</tilted></feature>
            <threshold>1.1734620202332735e-003</threshold>
            <left_val>-2.2795589268207550e-001</left_val>
            <right_val>2.6135650277137762e-001</right_val></_></_>
        <_>
          <!-- tree 13 -->
          <_>
            <!-- root node -->
            <feature>
              <rects>
                <_>9  5  3  1 -1.</_>
                <_>10   5   1   1 3.</_></rects>
              <tilted>0</tilted></feature>
            <threshold>-1.5138329472392797e-003</threshold>
            <left_val>-5.5395001173019409e-001</left_val>
            <right_val>1.1028339713811870e-001</right_val></_></_>
        <_>
          <!-- tree 14 -->
          <_>
            <!-- root node -->
            <feature>
              <rects>
                <_>8  5  3  1 -1.</_>
                <_>9  5  1  1 3.</_></rects>
              <tilted>0</tilted></feature>
            <threshold>-2.1774161141365767e-003</threshold>
            <left_val>-6.2228900194168091e-001</left_val>
            <right_val>7.8486673533916501e-002</right_val></_></_>
        <_>
          <!-- tree 15 -->
          <_>
            <!-- root node -->
            <feature>
              <rects>
                <_>13  11   1   3 -1.</_>
                <_>13  12   1   1 3.</_></rects>
              <tilted>0</tilted></feature>
            <threshold>-2.7727920096367598e-003</threshold>
            <left_val>4.6141120791435242e-001</left_val>
            <right_val>-1.3496559858322141e-001</right_val></_></_>
        <_>
          <!-- tree 16 -->
          <_>
            <!-- root node -->
            <feature>
              <rects>
                <_>1  4  1  2 -1.</_>
                <_>1  5  1  1 2.</_></rects>
              <tilted>0</tilted></feature>
            <threshold>9.3199027469381690e-004</threshold>
            <left_val>1.0162770003080369e-001</left_val>
            <right_val>-5.1631838083267212e-001</right_val></_></_>
        <_>
          <!-- tree 17 -->
          <_>
            <!-- root node -->
            <feature>
              <rects>
                <_>12  11   2   3 -1.</_>
                <_>12  12   2   1 3.</_></rects>
              <tilted>0</tilted></feature>
            <threshold>2.9746659565716982e-003</threshold>
            <left_val>-1.2999209761619571e-001</left_val>
            <right_val>4.2117300629615778e-001</right_val></_></_>
        <_>
          <!-- tree 18 -->
          <_>
            <!-- root node -->
            <feature>
              <rects>
                <_>7  10   3   4 -1.</_>
                <_>8  10   1   4 3.</_></rects>
              <tilted>0</tilted></feature>
            <threshold>-5.0399480387568474e-003</threshold>
            <left_val>-6.3706171512603760e-001</left_val>
            <right_val>7.7624127268791199e-002</right_val></_></_>
        <_>
          <!-- tree 19 -->
          <_>
            <!-- root node -->
            <feature>
              <rects>
                <_>12   5   2  14 -1.</_>
                <_>12  12   2   7 2.</_></rects>
              <tilted>0</tilted></feature>
            <threshold>2.3414850234985400e-002</threshold>
            <left_val>7.2182796895503998e-002</left_val>
            <right_val>-5.9831130504608154e-001</right_val></_></_>
        <_>
          <!-- tree 20 -->
          <_>
            <!-- root node -->
            <feature>
              <rects>
                <_>3  8  3  4 -1.</_>
                <_>3  10   3   2 2.</_></rects>
              <tilted>0</tilted></feature>
            <threshold>-1.0927390540018678e-003</threshold>
            <left_val>-4.1664880514144897e-001</left_val>
            <right_val>1.1829990148544310e-001</right_val></_></_>
        <_>
          <!-- tree 21 -->
          <_>
            <!-- root node -->
            <feature>
              <rects>
                <_>13   5   3   6 -1.</_>
                <_>13   7   3   2 3.</_></rects>
              <tilted>0</tilted></feature>
            <threshold>-1.6441360348835588e-003</threshold>
            <left_val>1.8583069741725919e-001</left_val>
            <right_val>-2.7551019191741938e-001</right_val></_></_>
        <_>
          <!-- tree 22 -->
          <_>
            <!-- root node -->
            <feature>
              <rects>
                <_>13  10   2   8 -1.</_>
                <_>13  14   2   4 2.</_></rects>
              <tilted>0</tilted></feature>
            <threshold>-2.5736279785633101e-002</threshold>
            <left_val>-7.5146478414535522e-001</left_val>
            <right_val>6.3907749950885800e-002</right_val></_></_>
        <_>
          <!-- tree 23 -->
          <_>
            <!-- root node -->
            <feature>
              <rects>
                <_>8  1  3  2 -1.</_>
                <_>9  1  1  2 3.</_></rects>
              <tilted>0</tilted></feature>
            <threshold>-2.8924590442329645e-003</threshold>
            <left_val>-5.6780880689620972e-001</left_val>
            <right_val>7.3297739028930706e-002</right_val></_></_>
        <_>
          <!-- tree 24 -->
          <_>
            <!-- root node -->
            <feature>
              <rects>
                <_>7  1  3  3 -1.</_>
                <_>8  1  1  3 3.</_></rects>
              <tilted>0</tilted></feature>
            <threshold>-5.2889231592416763e-003</threshold>
            <left_val>-6.3738888502120972e-001</left_val>
            <right_val>6.8686947226524395e-002</right_val></_></_>
        <_>
          <!-- tree 25 -->
          <_>
            <!-- root node -->
            <feature>
              <rects>
                <_>3  12   8   8 -1.</_>
                <_>7  12   4   4 2.</_>
                <_>3  16   4   4 2.</_></rects>
              <tilted>0</tilted></feature>
            <threshold>3.2964269630610943e-003</threshold>
            <left_val>-2.5062951445579529e-001</left_val>
            <right_val>1.5989780426025391e-001</right_val></_></_>
        <_>
          <!-- tree 26 -->
          <_>
            <!-- root node -->
            <feature>
              <rects>
                <_>6  13   6   4 -1.</_>
                <_>8  13   2   4 3.</_></rects>
              <tilted>0</tilted></feature>
            <threshold>2.4914439767599099e-002</threshold>
            <left_val>5.5260978639125803e-002</left_val>
            <right_val>-7.6208770275115967e-001</right_val></_></_>
        <_>
          <!-- tree 27 -->
          <_>
            <!-- root node -->
            <feature>
              <rects>
                <_>14   6   3  12 -1.</_>
                <_>15   6   1  12 3.</_></rects>
              <tilted>0</tilted></feature>
            <threshold>-1.5088500455021900e-002</threshold>
            <left_val>3.7033379077911383e-001</left_val>
            <right_val>-1.2003959715366359e-001</right_val></_></_></trees>
      <stage_threshold>-1.8260079622268677e+000</stage_threshold>
      <parent>3</parent>
      <next>-1</next></_>
    <_>
      <!-- stage 5 -->
      <trees>
        <_>
          <!-- tree 0 -->
          <_>
            <!-- root node -->
            <feature>
              <rects>
                <_>3  3  8  5 -1.</_>
                <_>3  3  4  5 2.</_></rects>
              <tilted>0</tilted></feature>
            <threshold>-1.1857179924845701e-002</threshold>
            <left_val>2.9421558976173401e-001</left_val>
            <right_val>-5.1703310012817383e-001</right_val></_></_>
        <_>
          <!-- tree 1 -->
          <_>
            <!-- root node -->
            <feature>
              <rects>
                <_>10   7   3   6 -1.</_>
                <_>10  10   3   3 2.</_></rects>
              <tilted>0</tilted></feature>
            <threshold>2.0991980563849211e-003</threshold>
            <left_val>-6.1471748352050781e-001</left_val>
            <right_val>2.0648500323295590e-001</right_val></_></_>
        <_>
          <!-- tree 2 -->
          <_>
            <!-- root node -->
            <feature>
              <rects>
                <_>5  10  10   4 -1.</_>
                <_>5  12  10   2 2.</_></rects>
              <tilted>0</tilted></feature>
            <threshold>-1.5772449842188507e-004</threshold>
            <left_val>2.2870740294456479e-001</left_val>
            <right_val>-5.5258047580718994e-001</right_val></_></_>
        <_>
          <!-- tree 3 -->
          <_>
            <!-- root node -->
            <feature>
              <rects>
                <_>8  12   1   6 -1.</_>
                <_>8  15   1   3 2.</_></rects>
              <tilted>0</tilted></feature>
            <threshold>-2.0669099467340857e-004</threshold>
            <left_val>1.2070009857416150e-001</left_val>
            <right_val>-5.4926127195358276e-001</right_val></_></_>
        <_>
          <!-- tree 4 -->
          <_>
            <!-- root node -->
            <feature>
              <rects>
                <_>9  8  6  2 -1.</_>
                <_>9  8  3  2 2.</_></rects>
              <tilted>0</tilted></feature>
            <threshold>2.2675560321658850e-003</threshold>
            <left_val>1.5354810655117040e-001</left_val>
            <right_val>-4.6074301004409790e-001</right_val></_></_>
        <_>
          <!-- tree 5 -->
          <_>
            <!-- root node -->
            <feature>
              <rects>
                <_>10   0   8   4 -1.</_>
                <_>14   0   4   2 2.</_>
                <_>10   2   4   2 2.</_></rects>
              <tilted>0</tilted></feature>
            <threshold>1.4469499699771401e-002</threshold>
            <left_val>-1.8976309895515439e-001</left_val>
            <right_val>4.2071411013603210e-001</right_val></_></_>
        <_>
          <!-- tree 6 -->
          <_>
            <!-- root node -->
            <feature>
              <rects>
                <_>6  7  3  5 -1.</_>
                <_>7  7  1  5 3.</_></rects>
              <tilted>0</tilted></feature>
            <threshold>-1.2127560330554843e-003</threshold>
            <left_val>-4.5139861106872559e-001</left_val>
            <right_val>9.9425867199897794e-002</right_val></_></_>
        <_>
          <!-- tree 7 -->
          <_>
            <!-- root node -->
            <feature>
              <rects>
                <_>6  13   2   3 -1.</_>
                <_>6  14   2   1 3.</_></rects>
              <tilted>0</tilted></feature>
            <threshold>2.1505509503185749e-003</threshold>
            <left_val>1.0200879722833631e-001</left_val>
            <right_val>-6.2064242362976074e-001</right_val></_></_>
        <_>
          <!-- tree 8 -->
          <_>
            <!-- root node -->
            <feature>
              <rects>
                <_>7  12   1   2 -1.</_>
                <_>7  13   1   1 2.</_></rects>
              <tilted>0</tilted></feature>
            <threshold>-1.6638869419693947e-003</threshold>
            <left_val>-7.0367491245269775e-001</left_val>
            <right_val>7.7214680612087305e-002</right_val></_></_>
        <_>
          <!-- tree 9 -->
          <_>
            <!-- root node -->
            <feature>
              <rects>
                <_>9  11   6   3 -1.</_>
                <_>9  11   3   3 2.</_></rects>
              <tilted>0</tilted></feature>
            <threshold>1.0530210565775633e-003</threshold>
            <left_val>-3.2453960180282593e-001</left_val>
            <right_val>1.7616109549999240e-001</right_val></_></_>
        <_>
          <!-- tree 10 -->
          <_>
            <!-- root node -->
            <feature>
              <rects>
                <_>15   6   3   9 -1.</_>
                <_>16   6   1   9 3.</_></rects>
              <tilted>0</tilted></feature>
            <threshold>1.1836409568786600e-002</threshold>
            <left_val>-1.3507820665836329e-001</left_val>
            <right_val>4.2641130089759832e-001</right_val></_></_>
        <_>
          <!-- tree 11 -->
          <_>
            <!-- root node -->
            <feature>
              <rects>
                <_>7  12   1   3 -1.</_>
                <_>7  13   1   1 3.</_></rects>
              <tilted>0</tilted></feature>
            <threshold>9.6512871095910668e-004</threshold>
            <left_val>9.4502769410610199e-002</left_val>
            <right_val>-4.8544931411743159e-001</right_val></_></_>
        <_>
          <!-- tree 12 -->
          <_>
            <!-- root node -->
            <feature>
              <rects>
                <_>11   8   4   2 -1.</_>
                <_>11   9   4   1 2.</_></rects>
              <tilted>0</tilted></feature>
            <threshold>7.5651629595085979e-004</threshold>
            <left_val>-2.9959529638290411e-001</left_val>
            <right_val>1.6867619752883911e-001</right_val></_></_>
        <_>
          <!-- tree 13 -->
          <_>
            <!-- root node -->
            <feature>
              <rects>
                <_>14   8   3   7 -1.</_>
                <_>15   8   1   7 3.</_></rects>
              <tilted>0</tilted></feature>
            <threshold>1.0839150287210900e-002</threshold>
            <left_val>-1.1121030151844030e-001</left_val>
            <right_val>4.6914410591125488e-001</right_val></_></_>
        <_>
          <!-- tree 14 -->
          <_>
            <!-- root node -->
            <feature>
              <rects>
                <_>13   3   6  15 -1.</_>
                <_>15   3   2  15 3.</_></rects>
              <tilted>0</tilted></feature>
            <threshold>-5.1439419388771099e-002</threshold>
            <left_val>4.1726920008659357e-001</left_val>
            <right_val>-1.1776400357484820e-001</right_val></_></_>
        <_>
          <!-- tree 15 -->
          <_>
            <!-- root node -->
            <feature>
              <rects>
                <_>4  14   4   3 -1.</_>
                <_>4  15   4   1 3.</_></rects>
              <tilted>0</tilted></feature>
            <threshold>3.4927250817418098e-003</threshold>
            <left_val>9.2512279748916598e-002</left_val>
            <right_val>-5.2599352598190308e-001</right_val></_></_>
        <_>
          <!-- tree 16 -->
          <_>
            <!-- root node -->
            <feature>
              <rects>
                <_>9   0   2  20 -1.</_>
                <_>10   0   1  10 2.</_>
                <_>9  10   1  10 2.</_></rects>
              <tilted>0</tilted></feature>
            <threshold>-1.3926399871707001e-002</threshold>
            <left_val>-6.6633498668670654e-001</left_val>
            <right_val>5.2386458963155698e-002</right_val></_></_>
        <_>
          <!-- tree 17 -->
          <_>
            <!-- root node -->
            <feature>
              <rects>
                <_>11  12   3   3 -1.</_>
                <_>11  13   3   1 3.</_></rects>
              <tilted>0</tilted></feature>
            <threshold>4.5590959489345551e-003</threshold>
            <left_val>-9.3383841216564206e-002</left_val>
            <right_val>4.3774750828742981e-001</right_val></_></_>
        <_>
          <!-- tree 18 -->
          <_>
            <!-- root node -->
            <feature>
              <rects>
                <_>12   7   3  10 -1.</_>
                <_>12  12   3   5 2.</_></rects>
              <tilted>0</tilted></feature>
            <threshold>-3.7318699061870603e-002</threshold>
            <left_val>-5.9583687782287598e-001</left_val>
            <right_val>7.2627849876880604e-002</right_val></_></_>
        <_>
          <!-- tree 19 -->
          <_>
            <!-- root node -->
            <feature>
              <rects>
                <_>10   5   2   1 -1.</_>
                <_>10   5   1   1 2.</_></rects>
              <tilted>0</tilted></feature>
            <threshold>1.2496879789978266e-003</threshold>
            <left_val>6.9537237286567702e-002</left_val>
            <right_val>-4.8772460222244263e-001</right_val></_></_>
        <_>
          <!-- tree 20 -->
          <_>
            <!-- root node -->
            <feature>
              <rects>
                <_>12  12   3   3 -1.</_>
                <_>12  13   3   1 3.</_></rects>
              <tilted>0</tilted></feature>
            <threshold>-3.7307639140635729e-003</threshold>
            <left_val>3.2699251174926758e-001</left_val>
            <right_val>-1.1739090085029601e-001</right_val></_></_>
        <_>
          <!-- tree 21 -->
          <_>
            <!-- root node -->
            <feature>
              <rects>
                <_>1  5  4  2 -1.</_>
                <_>1  6  4  1 2.</_></rects>
              <tilted>0</tilted></feature>
            <threshold>2.1144179627299309e-003</threshold>
            <left_val>9.2889092862605993e-002</left_val>
            <right_val>-4.1788020730018621e-001</right_val></_></_>
        <_>
          <!-- tree 22 -->
          <_>
            <!-- root node -->
            <feature>
              <rects>
                <_>2  5  3  2 -1.</_>
                <_>2  6  3  1 2.</_></rects>
              <tilted>0</tilted></feature>
            <threshold>-6.4239342464134097e-004</threshold>
            <left_val>-2.9332190752029419e-001</left_val>
            <right_val>1.3107809424400330e-001</right_val></_></_>
        <_>
          <!-- tree 23 -->
          <_>
            <!-- root node -->
            <feature>
              <rects>
                <_>13  11   2   3 -1.</_>
                <_>13  12   2   1 3.</_></rects>
              <tilted>0</tilted></feature>
            <threshold>-3.1379980500787497e-003</threshold>
            <left_val>3.2445520162582397e-001</left_val>
            <right_val>-1.1506850272417070e-001</right_val></_></_>
        <_>
          <!-- tree 24 -->
          <_>
            <!-- root node -->
            <feature>
              <rects>
                <_>10   5   4  12 -1.</_>
                <_>10   5   2  12 2.</_></rects>
              <tilted>0</tilted></feature>
            <threshold>-3.9186969399452203e-002</threshold>
            <left_val>-7.9360449314117432e-001</left_val>
            <right_val>5.0053481012582800e-002</right_val></_></_>
        <_>
          <!-- tree 25 -->
          <_>
            <!-- root node -->
            <feature>
              <rects>
                <_>10   4   3   3 -1.</_>
                <_>11   4   1   3 3.</_></rects>
              <tilted>0</tilted></feature>
            <threshold>4.4646807946264744e-003</threshold>
            <left_val>5.4776020348072101e-002</left_val>
            <right_val>-5.6535738706588745e-001</right_val></_></_>
        <_>
          <!-- tree 26 -->
          <_>
            <!-- root node -->
            <feature>
              <rects>
                <_>13   6   2   3 -1.</_>
                <_>13   6   1   3 2.</_></rects>
              <tilted>0</tilted></feature>
            <threshold>8.6451368406414986e-004</threshold>
            <left_val>-1.7471200227737430e-001</left_val>
            <right_val>1.9758160412311551e-001</right_val></_></_>
        <_>
          <!-- tree 27 -->
          <_>
            <!-- root node -->
            <feature>
              <rects>
                <_>13   8   3   1 -1.</_>
                <_>14   8   1   1 3.</_></rects>
              <tilted>0</tilted></feature>
            <threshold>2.4237011093646288e-003</threshold>
            <left_val>-9.5296189188957200e-002</left_val>
            <right_val>4.0760260820388788e-001</right_val></_></_>
        <_>
          <!-- tree 28 -->
          <_>
            <!-- root node -->
            <feature>
              <rects>
                <_>6  10   2   1 -1.</_>
                <_>6  10   1   1 2.</_></rects>
              <tilted>0</tilted></feature>
            <threshold>-2.5377490092068911e-003</threshold>
            <left_val>-6.2454742193222046e-001</left_val>
            <right_val>6.9920547306537600e-002</right_val></_></_>
        <_>
          <!-- tree 29 -->
          <_>
            <!-- root node -->
            <feature>
              <rects>
                <_>5  13   5   2 -1.</_>
                <_>5  14   5   1 2.</_></rects>
              <tilted>0</tilted></feature>
            <threshold>-7.3309220169903710e-006</threshold>
            <left_val>1.2249249964952470e-001</left_val>
            <right_val>-2.8157269954681402e-001</right_val></_></_>
        <_>
          <!-- tree 30 -->
          <_>
            <!-- root node -->
            <feature>
              <rects>
                <_>8  13   1   3 -1.</_>
                <_>8  14   1   1 3.</_></rects>
              <tilted>0</tilted></feature>
            <threshold>-1.8882560543715954e-003</threshold>
            <left_val>-6.2670397758483887e-001</left_val>
            <right_val>6.5820932388305706e-002</right_val></_></_>
        <_>
          <!-- tree 31 -->
          <_>
            <!-- root node -->
            <feature>
              <rects>
                <_>10   2   3   6 -1.</_>
                <_>10   4   3   2 3.</_></rects>
              <tilted>0</tilted></feature>
            <threshold>6.0609861975535750e-004</threshold>
            <left_val>-2.5481408834457397e-001</left_val>
            <right_val>1.2902240455150599e-001</right_val></_></_>
        <_>
          <!-- tree 32 -->
          <_>
            <!-- root node -->
            <feature>
              <rects>
                <_>13  11   2   3 -1.</_>
                <_>13  12   2   1 3.</_></rects>
              <tilted>0</tilted></feature>
            <threshold>2.3213759995996952e-003</threshold>
            <left_val>-9.7430117428302807e-002</left_val>
            <right_val>3.2456091046333307e-001</right_val></_></_>
        <_>
          <!-- tree 33 -->
          <_>
            <!-- root node -->
            <feature>
              <rects>
                <_>6  14   2   3 -1.</_>
                <_>6  15   2   1 3.</_></rects>
              <tilted>0</tilted></feature>
            <threshold>-1.8534410046413541e-003</threshold>
            <left_val>-4.4065341353416437e-001</left_val>
            <right_val>8.2968853414058699e-002</right_val></_></_>
        <_>
          <!-- tree 34 -->
          <_>
            <!-- root node -->
            <feature>
              <rects>
                <_>9  5  3  3 -1.</_>
                <_>9  6  3  1 3.</_></rects>
              <tilted>0</tilted></feature>
            <threshold>2.3999500554054976e-003</threshold>
            <left_val>-1.2041269987821580e-001</left_val>
            <right_val>2.8288060426712042e-001</right_val></_></_>
        <_>
          <!-- tree 35 -->
          <_>
            <!-- root node -->
            <feature>
              <rects>
                <_>4   6   9  10 -1.</_>
                <_>4  11   9   5 2.</_></rects>
              <tilted>0</tilted></feature>
            <threshold>-8.1356197595596300e-002</threshold>
            <left_val>-7.3972231149673462e-001</left_val>
            <right_val>4.6568300575017901e-002</right_val></_></_>
        <_>
          <!-- tree 36 -->
          <_>
            <!-- root node -->
            <feature>
              <rects>
                <_>2  18  18   2 -1.</_>
                <_>8  18   6   2 3.</_></rects>
              <tilted>0</tilted></feature>
            <threshold>-2.9865680262446404e-003</threshold>
            <left_val>1.6334620118141169e-001</left_val>
            <right_val>-1.9834910333156591e-001</right_val></_></_>
        <_>
          <!-- tree 37 -->
          <_>
            <!-- root node -->
            <feature>
              <rects>
                <_>19   5   1   8 -1.</_>
                <_>19   9   1   4 2.</_></rects>
              <tilted>0</tilted></feature>
            <threshold>2.8128880076110363e-003</threshold>
            <left_val>1.1837379634380341e-001</left_val>
            <right_val>-2.9398199915885931e-001</right_val></_></_>
        <_>
          <!-- tree 38 -->
          <_>
            <!-- root node -->
            <feature>
              <rects>
                <_>11   3   8  10 -1.</_>
                <_>11   8   8   5 2.</_></rects>
              <tilted>0</tilted></feature>
            <threshold>-1.0060790181159970e-001</threshold>
            <left_val>-7.3717647790908813e-001</left_val>
            <right_val>4.2510021477937698e-002</right_val></_></_>
        <_>
          <!-- tree 39 -->
          <_>
            <!-- root node -->
            <feature>
              <rects>
                <_>5  12   6   2 -1.</_>
                <_>5  13   6   1 2.</_></rects>
              <tilted>0</tilted></feature>
            <threshold>1.1854549666168168e-004</threshold>
            <left_val>1.0471060127019879e-001</left_val>
            <right_val>-2.9139861464500427e-001</right_val></_></_>
        <_>
          <!-- tree 40 -->
          <_>
            <!-- root node -->
            <feature>
              <rects>
                <_>9  6  2  3 -1.</_>
                <_>9  7  2  1 3.</_></rects>
              <tilted>0</tilted></feature>
            <threshold>2.2375308908522129e-003</threshold>
            <left_val>-9.6042059361934703e-002</left_val>
            <right_val>3.4045928716659551e-001</right_val></_></_>
        <_>
          <!-- tree 41 -->
          <_>
            <!-- root node -->
            <feature>
              <rects>
                <_>8  4  3  3 -1.</_>
                <_>9  4  1  3 3.</_></rects>
              <tilted>0</tilted></feature>
            <threshold>-4.4986992143094540e-003</threshold>
            <left_val>-5.8234661817550659e-001</left_val>
            <right_val>5.6236840784549699e-002</right_val></_></_>
        <_>
          <!-- tree 42 -->
          <_>
            <!-- root node -->
            <feature>
              <rects>
                <_>6  13   1   3 -1.</_>
                <_>6  14   1   1 3.</_></rects>
              <tilted>0</tilted></feature>
            <threshold>-3.6484538577497005e-004</threshold>
            <left_val>-2.7956131100654602e-001</left_val>
            <right_val>1.0113990306854249e-001</right_val></_></_>
        <_>
          <!-- tree 43 -->
          <_>
            <!-- root node -->
            <feature>
              <rects>
                <_>5   6  13   3 -1.</_>
                <_>5   7  13   1 3.</_></rects>
              <tilted>0</tilted></feature>
            <threshold>-7.9940296709537506e-003</threshold>
            <left_val>2.7775949239730841e-001</left_val>
            <right_val>-1.1941230297088620e-001</right_val></_></_>
        <_>
          <!-- tree 44 -->
          <_>
            <!-- root node -->
            <feature>
              <rects>
                <_>8  15   2   4 -1.</_>
                <_>8  15   1   4 2.</_></rects>
              <tilted>0</tilted></feature>
            <threshold>-5.1547219045460224e-003</threshold>
            <left_val>-6.0229510068893433e-001</left_val>
            <right_val>4.8917140811681699e-002</right_val></_></_>
        <_>
          <!-- tree 45 -->
          <_>
            <!-- root node -->
            <feature>
              <rects>
                <_>11   7   2   3 -1.</_>
                <_>11   7   1   3 2.</_></rects>
              <tilted>0</tilted></feature>
            <threshold>-8.1772619159892201e-004</threshold>
            <left_val>1.7660500109195709e-001</left_val>
            <right_val>-1.6407689452171331e-001</right_val></_></_>
        <_>
          <!-- tree 46 -->
          <_>
            <!-- root node -->
            <feature>
              <rects>
                <_>5   6  12   8 -1.</_>
                <_>11   6   6   4 2.</_>
                <_>5  10   6   4 2.</_></rects>
              <tilted>0</tilted></feature>
            <threshold>6.7434698343277005e-002</threshold>
            <left_val>4.0761459618806797e-002</left_val>
            <right_val>-7.1865761280059814e-001</right_val></_></_>
        <_>
          <!-- tree 47 -->
          <_>
            <!-- root node -->
            <feature>
              <rects>
                <_>0  0  8  4 -1.</_>
                <_>4  0  4  2 2.</_>
                <_>0  2  4  2 2.</_></rects>
              <tilted>0</tilted></feature>
            <threshold>-2.4103289470076561e-003</threshold>
            <left_val>1.7671680450439450e-001</left_val>
            <right_val>-1.6081850230693820e-001</right_val></_></_>
        <_>
          <!-- tree 48 -->
          <_>
            <!-- root node -->
            <feature>
              <rects>
                <_>8  15   3   3 -1.</_>
                <_>9  15   1   3 3.</_></rects>
              <tilted>0</tilted></feature>
            <threshold>-3.5183799918740988e-003</threshold>
            <left_val>-4.3078601360321050e-001</left_val>
            <right_val>7.0671632885932895e-002</right_val></_></_>
        <_>
          <!-- tree 49 -->
          <_>
            <!-- root node -->
            <feature>
              <rects>
                <_>9  14   1   2 -1.</_>
                <_>9  15   1   1 2.</_></rects>
              <tilted>0</tilted></feature>
            <threshold>-1.4561560419679154e-005</threshold>
            <left_val>1.2714700400829321e-001</left_val>
            <right_val>-2.3387859761714941e-001</right_val></_></_>
        <_>
          <!-- tree 50 -->
          <_>
            <!-- root node -->
            <feature>
              <rects>
                <_>9  11   5   6 -1.</_>
                <_>9  14   5   3 2.</_></rects>
              <tilted>0</tilted></feature>
            <threshold>-4.7951821237802499e-002</threshold>
            <left_val>-7.9085767269134521e-001</left_val>
            <right_val>3.6803081631660503e-002</right_val></_></_>
        <_>
          <!-- tree 51 -->
          <_>
            <!-- root node -->
            <feature>
              <rects>
                <_>13  10   2   3 -1.</_>
                <_>13  11   2   1 3.</_></rects>
              <tilted>0</tilted></feature>
            <threshold>2.1735159680247307e-003</threshold>
            <left_val>-1.3089279830455780e-001</left_val>
            <right_val>2.5330349802970892e-001</right_val></_></_>
        <_>
          <!-- tree 52 -->
          <_>
            <!-- root node -->
            <feature>
              <rects>
                <_>14  10   1   3 -1.</_>
                <_>14  11   1   1 3.</_></rects>
              <tilted>0</tilted></feature>
            <threshold>-3.4542270004749298e-003</threshold>
            <left_val>5.1025247573852539e-001</left_val>
            <right_val>-7.5337253510951996e-002</right_val></_></_></trees>
      <stage_threshold>-1.9446740150451660e+000</stage_threshold>
      <parent>4</parent>
      <next>-1</next></_>
    <_>
      <!-- stage 6 -->
      <trees>
        <_>
          <!-- tree 0 -->
          <_>
            <!-- root node -->
            <feature>
              <rects>
                <_>12   6   3   4 -1.</_>
                <_>13   6   1   4 3.</_></rects>
              <tilted>0</tilted></feature>
            <threshold>4.5243161730468273e-003</threshold>
            <left_val>-3.0485519766807562e-001</left_val>
            <right_val>5.1908642053604126e-001</right_val></_></_>
        <_>
          <!-- tree 1 -->
          <_>
            <!-- root node -->
            <feature>
              <rects>
                <_>5  6  6  4 -1.</_>
                <_>7  6  2  4 3.</_></rects>
              <tilted>0</tilted></feature>
            <threshold>2.3372350260615349e-003</threshold>
            <left_val>-4.2904540896415710e-001</left_val>
            <right_val>2.9052159190177917e-001</right_val></_></_>
        <_>
          <!-- tree 2 -->
          <_>
            <!-- root node -->
            <feature>
              <rects>
                <_>2   5  12   6 -1.</_>
                <_>2   7  12   2 3.</_></rects>
              <tilted>0</tilted></feature>
            <threshold>-4.4243237935006618e-003</threshold>
            <left_val>2.1068570017814639e-001</left_val>
            <right_val>-4.5954981446266169e-001</right_val></_></_>
        <_>
          <!-- tree 3 -->
          <_>
            <!-- root node -->
            <feature>
              <rects>
                <_>1   1  16   7 -1.</_>
                <_>1  1  8  7 2.</_></rects>
              <tilted>0</tilted></feature>
            <threshold>-1.2887439690530300e-002</threshold>
            <left_val>1.9138230383396149e-001</left_val>
            <right_val>-4.5879068970680242e-001</right_val></_></_>
        <_>
          <!-- tree 4 -->
          <_>
            <!-- root node -->
            <feature>
              <rects>
                <_>7  11   1   6 -1.</_>
                <_>7  14   1   3 2.</_></rects>
              <tilted>0</tilted></feature>
            <threshold>-5.2370920457178727e-005</threshold>
            <left_val>1.4141489565372470e-001</left_val>
            <right_val>-5.0267368555068970e-001</right_val></_></_>
        <_>
          <!-- tree 5 -->
          <_>
            <!-- root node -->
            <feature>
              <rects>
                <_>5  6  9  8 -1.</_>
                <_>5  10   9   4 2.</_></rects>
              <tilted>0</tilted></feature>
            <threshold>-4.7738491557538509e-003</threshold>
            <left_val>-4.8760831356048578e-001</left_val>
            <right_val>1.2341009825468061e-001</right_val></_></_>
        <_>
          <!-- tree 6 -->
          <_>
            <!-- root node -->
            <feature>
              <rects>
                <_>11   9   4   6 -1.</_>
                <_>11  12   4   3 2.</_></rects>
              <tilted>0</tilted></feature>
            <threshold>9.6315861446782947e-004</threshold>
            <left_val>1.3367399573326111e-001</left_val>
            <right_val>-4.4793748855590820e-001</right_val></_></_>
        <_>
          <!-- tree 7 -->
          <_>
            <!-- root node -->
            <feature>
              <rects>
                <_>13   0   6  14 -1.</_>
                <_>13   0   3  14 2.</_></rects>
              <tilted>0</tilted></feature>
            <threshold>-8.9140303432941395e-002</threshold>
            <left_val>5.0387668609619141e-001</left_val>
            <right_val>-1.5923009812831879e-001</right_val></_></_>
        <_>
          <!-- tree 8 -->
          <_>
            <!-- root node -->
            <feature>
              <rects>
                <_>11   1   1   9 -1.</_>
                <_>11   4   1   3 3.</_></rects>
              <tilted>0</tilted></feature>
            <threshold>1.7201449954882264e-003</threshold>
            <left_val>-2.0535360276699069e-001</left_val>
            <right_val>2.4340680241584781e-001</right_val></_></_>
        <_>
          <!-- tree 9 -->
          <_>
            <!-- root node -->
            <feature>
              <rects>
                <_>7  13   2   2 -1.</_>
                <_>7  14   2   1 2.</_></rects>
              <tilted>0</tilted></feature>
            <threshold>-2.6712119579315186e-003</threshold>
            <left_val>-6.3319712877273560e-001</left_val>
            <right_val>5.3035650402307503e-002</right_val></_></_>
        <_>
          <!-- tree 10 -->
          <_>
            <!-- root node -->
            <feature>
              <rects>
                <_>14   7   4  13 -1.</_>
                <_>14   7   2  13 2.</_></rects>
              <tilted>0</tilted></feature>
            <threshold>3.7353280931711197e-002</threshold>
            <left_val>-1.1360249668359761e-001</left_val>
            <right_val>4.6645331382751470e-001</right_val></_></_>
        <_>
          <!-- tree 11 -->
          <_>
            <!-- root node -->
            <feature>
              <rects>
                <_>9  8  6  6 -1.</_>
                <_>9  8  3  6 2.</_></rects>
              <tilted>0</tilted></feature>
            <threshold>-3.1510960310697597e-002</threshold>
            <left_val>-6.8820482492446899e-001</left_val>
            <right_val>6.9371856749057798e-002</right_val></_></_>
        <_>
          <!-- tree 12 -->
          <_>
            <!-- root node -->
            <feature>
              <rects>
                <_>0   0   2  20 -1.</_>
                <_>0   0   1  20 2.</_></rects>
              <tilted>0</tilted></feature>
            <threshold>1.5293819829821600e-002</threshold>
            <left_val>-1.0043840110301970e-001</left_val>
            <right_val>4.6267789602279658e-001</right_val></_></_>
        <_>
          <!-- tree 13 -->
          <_>
            <!-- root node -->
            <feature>
              <rects>
                <_>11   7   3   3 -1.</_>
                <_>12   7   1   3 3.</_></rects>
              <tilted>0</tilted></feature>
            <threshold>5.4966909810900688e-003</threshold>
            <left_val>-9.3514643609523801e-002</left_val>
            <right_val>4.5127061009407038e-001</right_val></_></_>
        <_>
          <!-- tree 14 -->
          <_>
            <!-- root node -->
            <feature>
              <rects>
                <_>6  10   1   4 -1.</_>
                <_>6  12   1   2 2.</_></rects>
              <tilted>0</tilted></feature>
            <threshold>-4.6311439946293831e-003</threshold>
            <left_val>-6.4314597845077515e-001</left_val>
            <right_val>8.5003547370433793e-002</right_val></_></_>
        <_>
          <!-- tree 15 -->
          <_>
            <!-- root node -->
            <feature>
              <rects>
                <_>6  11   2   2 -1.</_>
                <_>6  12   2   1 2.</_></rects>
              <tilted>0</tilted></feature>
            <threshold>8.0943357897922397e-004</threshold>
            <left_val>7.9738967120647403e-002</left_val>
            <right_val>-4.9320799112319952e-001</right_val></_></_>
        <_>
          <!-- tree 16 -->
          <_>
            <!-- root node -->
            <feature>
              <rects>
                <_>5   6  12   6 -1.</_>
                <_>11   6   6   3 2.</_>
                <_>5  9  6  3 2.</_></rects>
              <tilted>0</tilted></feature>
            <threshold>2.9745940119028098e-002</threshold>
            <left_val>7.8420467674732194e-002</left_val>
            <right_val>-5.0482439994812012e-001</right_val></_></_>
        <_>
          <!-- tree 17 -->
          <_>
            <!-- root node -->
            <feature>
              <rects>
                <_>8  13   2   2 -1.</_>
                <_>8  14   2   1 2.</_></rects>
              <tilted>0</tilted></feature>
            <threshold>9.7070122137665749e-004</threshold>
            <left_val>5.8135438710451098e-002</left_val>
            <right_val>-5.7035177946090698e-001</right_val></_></_>
        <_>
          <!-- tree 18 -->
          <_>
            <!-- root node -->
            <feature>
              <rects>
                <_>12  13   2   3 -1.</_>
                <_>12  14   2   1 3.</_></rects>
              <tilted>0</tilted></feature>
            <threshold>2.4534659460186958e-003</threshold>
            <left_val>-1.1259060353040699e-001</left_val>
            <right_val>3.6852970719337458e-001</right_val></_></_>
        <_>
          <!-- tree 19 -->
          <_>
            <!-- root node -->
            <feature>
              <rects>
                <_>6  5  1  3 -1.</_>
                <_>6  6  1  1 3.</_></rects>
              <tilted>0</tilted></feature>
            <threshold>1.9709810148924589e-003</threshold>
            <left_val>7.7185310423374204e-002</left_val>
            <right_val>-5.2683860063552856e-001</right_val></_></_>
        <_>
          <!-- tree 20 -->
          <_>
            <!-- root node -->
            <feature>
              <rects>
                <_>11  14   3   3 -1.</_>
                <_>11  15   3   1 3.</_></rects>
              <tilted>0</tilted></feature>
            <threshold>4.8643019981682301e-003</threshold>
            <left_val>-1.0479539632797240e-001</left_val>
            <right_val>4.1474440693855291e-001</right_val></_></_>
        <_>
          <!-- tree 21 -->
          <_>
            <!-- root node -->
            <feature>
              <rects>
                <_>12  15   3   3 -1.</_>
                <_>12  16   3   1 3.</_></rects>
              <tilted>0</tilted></feature>
            <threshold>1.0143260005861521e-003</threshold>
            <left_val>-1.4731560647487640e-001</left_val>
            <right_val>2.8671079874038702e-001</right_val></_></_>
        <_>
          <!-- tree 22 -->
          <_>
            <!-- root node -->
            <feature>
              <rects>
                <_>4  3  1  3 -1.</_>
                <_>4  4  1  1 3.</_></rects>
              <tilted>0</tilted></feature>
            <threshold>-9.5099088503047824e-004</threshold>
            <left_val>-3.8070049881935120e-001</left_val>
            <right_val>8.8108353316783905e-002</right_val></_></_>
        <_>
          <!-- tree 23 -->
          <_>
            <!-- root node -->
            <feature>
              <rects>
                <_>14   8   3  12 -1.</_>
                <_>15   8   1  12 3.</_></rects>
              <tilted>0</tilted></feature>
            <threshold>-5.6730289943516254e-003</threshold>
            <left_val>2.4818900227546689e-001</left_val>
            <right_val>-1.3696339726448059e-001</right_val></_></_>
        <_>
          <!-- tree 24 -->
          <_>
            <!-- root node -->
            <feature>
              <rects>
                <_>14   4   3  14 -1.</_>
                <_>15   4   1  14 3.</_></rects>
              <tilted>0</tilted></feature>
            <threshold>1.6987899318337399e-002</threshold>
            <left_val>-8.0896042287349701e-002</left_val>
            <right_val>5.2781671285629272e-001</right_val></_></_>
        <_>
          <!-- tree 25 -->
          <_>
            <!-- root node -->
            <feature>
              <rects>
                <_>8  11   6   2 -1.</_>
                <_>8  11   3   2 2.</_></rects>
              <tilted>0</tilted></feature>
            <threshold>-7.5278789736330509e-003</threshold>
            <left_val>-4.6880009770393372e-001</left_val>
            <right_val>8.9389666914939894e-002</right_val></_></_>
        <_>
          <!-- tree 26 -->
          <_>
            <!-- root node -->
            <feature>
              <rects>
                <_>8  8  8  4 -1.</_>
                <_>8  8  4  4 2.</_></rects>
              <tilted>0</tilted></feature>
            <threshold>3.3948529511690098e-002</threshold>
            <left_val>5.0594791769981398e-002</left_val>
            <right_val>-6.7399561405181885e-001</right_val></_></_>
        <_>
          <!-- tree 27 -->
          <_>
            <!-- root node -->
            <feature>
              <rects>
                <_>14   5   2   4 -1.</_>
                <_>14   5   1   4 2.</_></rects>
              <tilted>0</tilted></feature>
            <threshold>8.3328841719776392e-004</threshold>
            <left_val>-1.8931360542774200e-001</left_val>
            <right_val>1.9607099890708921e-001</right_val></_></_>
        <_>
          <!-- tree 28 -->
          <_>
            <!-- root node -->
            <feature>
              <rects>
                <_>11   3   2   1 -1.</_>
                <_>11   3   1   1 2.</_></rects>
              <tilted>0</tilted></feature>
            <threshold>-5.9632491320371628e-004</threshold>
            <left_val>-3.6229288578033447e-001</left_val>
            <right_val>1.0544770210981370e-001</right_val></_></_>
        <_>
          <!-- tree 29 -->
          <_>
            <!-- root node -->
            <feature>
              <rects>
                <_>6  16   2   3 -1.</_>
                <_>6  17   2   1 3.</_></rects>
              <tilted>0</tilted></feature>
            <threshold>3.0905720777809620e-003</threshold>
            <left_val>5.7209629565477399e-002</left_val>
            <right_val>-5.5316972732543945e-001</right_val></_></_>
        <_>
          <!-- tree 30 -->
          <_>
            <!-- root node -->
            <feature>
              <rects>
                <_>11  16   6   3 -1.</_>
                <_>11  17   6   1 3.</_></rects>
              <tilted>0</tilted></feature>
            <threshold>3.5152619238942862e-003</threshold>
            <left_val>-1.2211070209741590e-001</left_val>
            <right_val>2.9369899630546570e-001</right_val></_></_>
        <_>
          <!-- tree 31 -->
          <_>
            <!-- root node -->
            <feature>
              <rects>
                <_>5  4  2  1 -1.</_>
                <_>5  4  1  1 2.</_></rects>
              <tilted>0</tilted></feature>
            <threshold>7.9333729809150100e-004</threshold>
            <left_val>7.5977906584739699e-002</left_val>
            <right_val>-4.4539821147918701e-001</right_val></_></_>
        <_>
          <!-- tree 32 -->
          <_>
            <!-- root node -->
            <feature>
              <rects>
                <_>7  16   4   4 -1.</_>
                <_>7  16   2   4 2.</_></rects>
              <tilted>0</tilted></feature>
            <threshold>-1.1189360171556501e-002</threshold>
            <left_val>-5.0596517324447632e-001</left_val>
            <right_val>5.7438369840383502e-002</right_val></_></_>
        <_>
          <!-- tree 33 -->
          <_>
            <!-- root node -->
            <feature>
              <rects>
                <_>12   9   3   1 -1.</_>
                <_>13   9   1   1 3.</_></rects>
              <tilted>0</tilted></feature>
            <threshold>-1.1787790572270751e-003</threshold>
            <left_val>3.0799698829650879e-001</left_val>
            <right_val>-1.0762230306863790e-001</right_val></_></_>
        <_>
          <!-- tree 34 -->
          <_>
            <!-- root node -->
            <feature>
              <rects>
                <_>12   8   2   2 -1.</_>
                <_>12   9   2   1 2.</_></rects>
              <tilted>0</tilted></feature>
            <threshold>5.4418851505033672e-005</threshold>
            <left_val>-2.5997561216354370e-001</left_val>
            <right_val>1.3138440251350400e-001</right_val></_></_>
        <_>
          <!-- tree 35 -->
          <_>
            <!-- root node -->
            <feature>
              <rects>
                <_>6  13   2   1 -1.</_>
                <_>6  13   1   1 2.</_></rects>
              <tilted>0</tilted></feature>
            <threshold>-7.2562302193546202e-006</threshold>
            <left_val>1.5439839661121371e-001</left_val>
            <right_val>-2.1094700694084170e-001</right_val></_></_>
        <_>
          <!-- tree 36 -->
          <_>
            <!-- root node -->
            <feature>
              <rects>
                <_>8  7  6  3 -1.</_>
                <_>10   7   2   3 3.</_></rects>
              <tilted>0</tilted></feature>
            <threshold>-8.3436258137226105e-004</threshold>
            <left_val>1.3689869642257690e-001</left_val>
            <right_val>-2.4367660284042361e-001</right_val></_></_>
        <_>
          <!-- tree 37 -->
          <_>
            <!-- root node -->
            <feature>
              <rects>
                <_>13   8   2  10 -1.</_>
                <_>13  13   2   5 2.</_></rects>
              <tilted>0</tilted></feature>
            <threshold>-3.3380609005689600e-002</threshold>
            <left_val>-6.7477357387542725e-001</left_val>
            <right_val>5.0986740738153499e-002</right_val></_></_>
        <_>
          <!-- tree 38 -->
          <_>
            <!-- root node -->
            <feature>
              <rects>
                <_>19   8   1   2 -1.</_>
                <_>19   9   1   1 2.</_></rects>
              <tilted>0</tilted></feature>
            <threshold>7.4093497823923826e-004</threshold>
            <left_val>9.1248527169227600e-002</left_val>
            <right_val>-3.5220760107040411e-001</right_val></_></_>
        <_>
          <!-- tree 39 -->
          <_>
            <!-- root node -->
            <feature>
              <rects>
                <_>14  11   4   4 -1.</_>
                <_>14  11   2   4 2.</_></rects>
              <tilted>0</tilted></feature>
            <threshold>-2.0966369193047285e-003</threshold>
            <left_val>1.9110049307346341e-001</left_val>
            <right_val>-1.6380029916763311e-001</right_val></_></_>
        <_>
          <!-- tree 40 -->
          <_>
            <!-- root node -->
            <feature>
              <rects>
                <_>7   9  12   3 -1.</_>
                <_>11   9   4   3 3.</_></rects>
              <tilted>0</tilted></feature>
            <threshold>-6.9339506328105899e-002</threshold>
            <left_val>-8.7700867652893066e-001</left_val>
            <right_val>3.5726629197597497e-002</right_val></_></_>
        <_>
          <!-- tree 41 -->
          <_>
            <!-- root node -->
            <feature>
              <rects>
                <_>10  15   2   3 -1.</_>
                <_>10  15   1   3 2.</_></rects>
              <tilted>0</tilted></feature>
            <threshold>-5.7089990004897118e-003</threshold>
            <left_val>-6.8067228794097900e-001</left_val>
            <right_val>3.5545960068702698e-002</right_val></_></_>
        <_>
          <!-- tree 42 -->
          <_>
            <!-- root node -->
            <feature>
              <rects>
                <_>9  6  3  3 -1.</_>
                <_>9  7  3  1 3.</_></rects>
              <tilted>0</tilted></feature>
            <threshold>6.8668760359287262e-003</threshold>
            <left_val>-6.4886868000030504e-002</left_val>
            <right_val>5.2265900373458862e-001</right_val></_></_>
        <_>
          <!-- tree 43 -->
          <_>
            <!-- root node -->
            <feature>
              <rects>
                <_>18   2   1   2 -1.</_>
                <_>18   3   1   1 2.</_></rects>
              <tilted>0</tilted></feature>
            <threshold>5.4602831369265914e-004</threshold>
            <left_val>1.0924419760704041e-001</left_val>
            <right_val>-3.0285251140594482e-001</right_val></_></_>
        <_>
          <!-- tree 44 -->
          <_>
            <!-- root node -->
            <feature>
              <rects>
                <_>8  1  7  6 -1.</_>
                <_>8  3  7  2 3.</_></rects>
              <tilted>0</tilted></feature>
            <threshold>6.4349039457738400e-003</threshold>
            <left_val>-1.6561950743198400e-001</left_val>
            <right_val>1.9022129476070401e-001</right_val></_></_>
        <_>
          <!-- tree 45 -->
          <_>
            <!-- root node -->
            <feature>
              <rects>
                <_>13  10   2   3 -1.</_>
                <_>13  11   2   1 3.</_></rects>
              <tilted>0</tilted></feature>
            <threshold>-1.0112419724464399e-002</threshold>
            <left_val>7.4523001909255981e-001</left_val>
            <right_val>-3.8347329944372198e-002</right_val></_></_>
        <_>
          <!-- tree 46 -->
          <_>
            <!-- root node -->
            <feature>
              <rects>
                <_>4  7  3  4 -1.</_>
                <_>4  9  3  2 2.</_></rects>
              <tilted>0</tilted></feature>
            <threshold>-7.5152877252548933e-004</threshold>
            <left_val>-2.8147280216217041e-001</left_val>
            <right_val>1.1321689933538440e-001</right_val></_></_>
        <_>
          <!-- tree 47 -->
          <_>
            <!-- root node -->
            <feature>
              <rects>
                <_>12  10   3   3 -1.</_>
                <_>12  11   3   1 3.</_></rects>
              <tilted>0</tilted></feature>
            <threshold>2.8225290589034557e-003</threshold>
            <left_val>-1.2364400178194050e-001</left_val>
            <right_val>2.5608530640602112e-001</right_val></_></_>
        <_>
          <!-- tree 48 -->
          <_>
            <!-- root node -->
            <feature>
              <rects>
                <_>10   5   3   1 -1.</_>
                <_>11   5   1   1 3.</_></rects>
              <tilted>0</tilted></feature>
            <threshold>2.2058798931539059e-003</threshold>
            <left_val>5.7334281504154198e-002</left_val>
            <right_val>-5.6152081489562988e-001</right_val></_></_>
        <_>
          <!-- tree 49 -->
          <_>
            <!-- root node -->
            <feature>
              <rects>
                <_>9   0  11  16 -1.</_>
                <_>9   8  11   8 2.</_></rects>
              <tilted>0</tilted></feature>
            <threshold>2.8164181113243097e-001</threshold>
            <left_val>4.2092379182577098e-002</left_val>
            <right_val>-6.4923799037933350e-001</right_val></_></_>
        <_>
          <!-- tree 50 -->
          <_>
            <!-- root node -->
            <feature>
              <rects>
                <_>10   4   3   2 -1.</_>
                <_>11   4   1   2 3.</_></rects>
              <tilted>0</tilted></feature>
            <threshold>-4.2593148536980152e-003</threshold>
            <left_val>-6.4854997396469116e-001</left_val>
            <right_val>4.3502658605575603e-002</right_val></_></_>
        <_>
          <!-- tree 51 -->
          <_>
            <!-- root node -->
            <feature>
              <rects>
                <_>12  12   2   3 -1.</_>
                <_>12  13   2   1 3.</_></rects>
              <tilted>0</tilted></feature>
            <threshold>2.6586679741740227e-003</threshold>
            <left_val>-9.3526139855384799e-002</left_val>
            <right_val>3.4158730506896973e-001</right_val></_></_>
        <_>
          <!-- tree 52 -->
          <_>
            <!-- root node -->
            <feature>
              <rects>
                <_>12  11   2   3 -1.</_>
                <_>12  12   2   1 3.</_></rects>
              <tilted>0</tilted></feature>
            <threshold>2.0971989724785089e-003</threshold>
            <left_val>-1.1068929731845860e-001</left_val>
            <right_val>3.1760269403457642e-001</right_val></_></_>
        <_>
          <!-- tree 53 -->
          <_>
            <!-- root node -->
            <feature>
              <rects>
                <_>5  5  2  2 -1.</_>
                <_>5  6  2  1 2.</_></rects>
              <tilted>0</tilted></feature>
            <threshold>-1.0267860488966107e-003</threshold>
            <left_val>-3.7612101435661321e-001</left_val>
            <right_val>9.8973110318183899e-002</right_val></_></_></trees>
      <stage_threshold>-1.8389279842376709e+000</stage_threshold>
      <parent>5</parent>
      <next>-1</next></_>
    <_>
      <!-- stage 7 -->
      <trees>
        <_>
          <!-- tree 0 -->
          <_>
            <!-- root node -->
            <feature>
              <rects>
                <_>10   8   2   6 -1.</_>
                <_>10  10   2   2 3.</_></rects>
              <tilted>0</tilted></feature>
            <threshold>2.6354179717600346e-003</threshold>
            <left_val>-5.2496808767318726e-001</left_val>
            <right_val>2.7711030840873718e-001</right_val></_></_>
        <_>
          <!-- tree 1 -->
          <_>
            <!-- root node -->
            <feature>
              <rects>
                <_>12   6   3   4 -1.</_>
                <_>13   6   1   4 3.</_></rects>
              <tilted>0</tilted></feature>
            <threshold>2.6279650628566742e-003</threshold>
            <left_val>-3.2195448875427252e-001</left_val>
            <right_val>3.7013629078865051e-001</right_val></_></_>
        <_>
          <!-- tree 2 -->
          <_>
            <!-- root node -->
            <feature>
              <rects>
                <_>0   0  10   8 -1.</_>
                <_>5  0  5  4 2.</_>
                <_>0  4  5  4 2.</_></rects>
              <tilted>0</tilted></feature>
            <threshold>-5.8889109641313553e-003</threshold>
            <left_val>2.3777529597282410e-001</left_val>
            <right_val>-4.1800329089164728e-001</right_val></_></_>
        <_>
          <!-- tree 3 -->
          <_>
            <!-- root node -->
            <feature>
              <rects>
                <_>9   7   2  12 -1.</_>
                <_>9  11   2   4 3.</_></rects>
              <tilted>0</tilted></feature>
            <threshold>1.9291159696877003e-003</threshold>
            <left_val>-4.7122061252593989e-001</left_val>
            <right_val>1.3692170381546021e-001</right_val></_></_>
        <_>
          <!-- tree 4 -->
          <_>
            <!-- root node -->
            <feature>
              <rects>
                <_>2   3  12  12 -1.</_>
                <_>8  3  6  6 2.</_>
                <_>2  9  6  6 2.</_></rects>
              <tilted>0</tilted></feature>
            <threshold>-1.5205480158329000e-002</threshold>
            <left_val>-3.9618429541587830e-001</left_val>
            <right_val>1.7402400076389310e-001</right_val></_></_>
        <_>
          <!-- tree 5 -->
          <_>
            <!-- root node -->
            <feature>
              <rects>
                <_>11   7   4   6 -1.</_>
                <_>11   9   4   2 3.</_></rects>
              <tilted>0</tilted></feature>
            <threshold>2.3393579758703709e-003</threshold>
            <left_val>-3.8508901000022888e-001</left_val>
            <right_val>1.5659110248088839e-001</right_val></_></_>
        <_>
          <!-- tree 6 -->
          <_>
            <!-- root node -->
            <feature>
              <rects>
                <_>5   7  10  10 -1.</_>
                <_>10   7   5   5 2.</_>
                <_>5  12   5   5 2.</_></rects>
              <tilted>0</tilted></feature>
            <threshold>4.2395621538162197e-002</threshold>
            <left_val>1.0478709638118740e-001</left_val>
            <right_val>-6.2164002656936646e-001</right_val></_></_>
        <_>
          <!-- tree 7 -->
          <_>
            <!-- root node -->
            <feature>
              <rects>
                <_>14   1   4  15 -1.</_>
                <_>14   1   2  15 2.</_></rects>
              <tilted>0</tilted></feature>
            <threshold>-5.6959640234708800e-002</threshold>
            <left_val>5.1225858926773071e-001</left_val>
            <right_val>-1.2684780359268191e-001</right_val></_></_>
        <_>
          <!-- tree 8 -->
          <_>
            <!-- root node -->
            <feature>
              <rects>
                <_>6  11   2   2 -1.</_>
                <_>6  11   1   2 2.</_></rects>
              <tilted>0</tilted></feature>
            <threshold>-7.2845568865886889e-006</threshold>
            <left_val>1.5136890113353729e-001</left_val>
            <right_val>-3.1185621023178101e-001</right_val></_></_>
        <_>
          <!-- tree 9 -->
          <_>
            <!-- root node -->
            <feature>
              <rects>
                <_>4  11  10   6 -1.</_>
                <_>4  14  10   3 2.</_></rects>
              <tilted>0</tilted></feature>
            <threshold>-7.9633750021457700e-002</threshold>
            <left_val>-8.4324747323989868e-001</left_val>
            <right_val>4.4978428632020999e-002</right_val></_></_>
        <_>
          <!-- tree 10 -->
          <_>
            <!-- root node -->
            <feature>
              <rects>
                <_>11  12   4   3 -1.</_>
                <_>11  13   4   1 3.</_></rects>
              <tilted>0</tilted></feature>
            <threshold>5.9168688021600246e-003</threshold>
            <left_val>-1.0745979845523830e-001</left_val>
            <right_val>4.7434100508689880e-001</right_val></_></_>
        <_>
          <!-- tree 11 -->
          <_>
            <!-- root node -->
            <feature>
